Language model created by QuickLM on Sat Jan  6 16:19:48 EST 2018
Copyright (c) 1996-2010 Carnegie Mellon University and Alexander I. Rudnicky

The model is in standard ARPA format, designed by Doug Paul while he was at MITRE.

The code that was used to produce this language model is available in Open Source.
Please visit http://www.speech.cs.cmu.edu/tools/ for more information

The (fixed) discount mass is 0.5. The backoffs are computed using the ratio method.
This model based on a corpus of 12 sentences and 19 words

\data\
ngram 1=19
ngram 2=29
ngram 3=20

\1-grams:
-0.8653 </s> -0.3010
-0.8653 <s> -0.2374
-1.9445 ASSISTANT -0.2374
-1.9445 BACKWARD -0.2374
-1.9445 BROWSER -0.2374
-1.9445 E-MAIL -0.2374
-1.9445 FORWARD -0.2374
-1.9445 LAST -0.2910
-1.6435 LIGHTS -0.2910
-1.9445 MUSIC -0.2961
-1.9445 NEW -0.2961
-1.9445 NEXT -0.2910
-1.9445 OFF -0.2374
-1.9445 ON -0.2374
-1.6435 OPEN -0.2910
-1.9445 PAUSE -0.2374
-1.9445 PLAY -0.2374
-1.9445 PLAYER -0.2374
-1.6435 WINDOW -0.2374

\2-grams:
-1.3802 <s> ASSISTANT 0.0000
-1.3802 <s> BACKWARD 0.0000
-1.3802 <s> FORWARD 0.0000
-1.3802 <s> LAST 0.0000
-1.0792 <s> LIGHTS 0.0000
-1.3802 <s> NEW 0.0000
-1.3802 <s> NEXT 0.0000
-1.0792 <s> OPEN 0.0000
-1.3802 <s> PAUSE 0.0000
-1.3802 <s> PLAY 0.0000
-0.3010 ASSISTANT </s> -0.3010
-0.3010 BACKWARD </s> -0.3010
-0.3010 BROWSER </s> -0.3010
-0.3010 E-MAIL </s> -0.3010
-0.3010 FORWARD </s> -0.3010
-0.3010 LAST WINDOW 0.0000
-0.6021 LIGHTS OFF 0.0000
-0.6021 LIGHTS ON 0.0000
-0.3010 MUSIC PLAYER 0.0000
-0.3010 NEW E-MAIL 0.0000
-0.3010 NEXT WINDOW 0.0000
-0.3010 OFF </s> -0.3010
-0.3010 ON </s> -0.3010
-0.6021 OPEN BROWSER 0.0000
-0.6021 OPEN MUSIC 0.0000
-0.3010 PAUSE </s> -0.3010
-0.3010 PLAY </s> -0.3010
-0.3010 PLAYER </s> -0.3010
-0.3010 WINDOW </s> -0.3010

\3-grams:
-0.3010 <s> ASSISTANT </s>
-0.3010 <s> BACKWARD </s>
-0.3010 <s> FORWARD </s>
-0.3010 <s> LAST WINDOW
-0.6021 <s> LIGHTS OFF
-0.6021 <s> LIGHTS ON
-0.3010 <s> NEW E-MAIL
-0.3010 <s> NEXT WINDOW
-0.6021 <s> OPEN BROWSER
-0.6021 <s> OPEN MUSIC
-0.3010 <s> PAUSE </s>
-0.3010 <s> PLAY </s>
-0.3010 LAST WINDOW </s>
-0.3010 LIGHTS OFF </s>
-0.3010 LIGHTS ON </s>
-0.3010 MUSIC PLAYER </s>
-0.3010 NEW E-MAIL </s>
-0.3010 NEXT WINDOW </s>
-0.3010 OPEN BROWSER </s>
-0.3010 OPEN MUSIC PLAYER

\end\
